<?xml version="1.0"?>
<opencv_storage>
<stage0>
  <maxWeakCount>7</maxWeakCount>
  <stageThreshold>-3.1672096252441406e-01</stageThreshold>
  <weakClassifiers>
    <_>
      <internalNodes>
        0 -1 84176 1.3350267894566059e-02</internalNodes>
      <leafValues>
        -7.0309656858444214e-01 8.5587584972381592e-01</leafValues></_>
    <_>
      <internalNodes>
        0 -1 61276 3.9222803898155689e-03</internalNodes>
      <leafValues>
        -5.8774733543395996e-01 9.5330995321273804e-01</leafValues></_>
    <_>
      <internalNodes>
        0 -1 9444 1.5553557313978672e-02</internalNodes>
      <leafValues>
        -9.5130449533462524e-01 5.9240055084228516e-01</leafValues></_>
    <_>
      <internalNodes>
        0 -1 69940 -2.1338492631912231e-02</internalNodes>
      <leafValues>
        7.4463027715682983e-01 -6.5606337785720825e-01</leafValues></_>
    <_>
      <internalNodes>
        0 -1 86239 -6.4934054389595985e-03</internalNodes>
      <leafValues>
        9.9737435579299927e-01 -4.7845655679702759e-01</leafValues></_>
    <_>
      <internalNodes>
        0 -1 104374 -2.4631405249238014e-02</internalNodes>
      <leafValues>
        9.7229975461959839e-01 -4.2199593782424927e-01</leafValues></_>
    <_>
      <internalNodes>
        0 -1 110658 1.6586536730756052e-05</internalNodes>
      <leafValues>
        5.3754460811614990e-01 -9.9803251028060913e-01</leafValues></_></weakClassifiers></stage0>
</opencv_storage>
